{
    "architecture": [
        {
            "type": "Linear",
            "input_features": 23,
            "output_features": 15,
            "activation": "relu"
        },
        {
            "type": "Linear",
            "input_features": 15,
            "output_features": 2,
            "activation": null
        }
    ],
    "parameters": {
        "layers": [
            {
                "name": "fc1",
                "num_neurons": 15,
                "num_inputs": 23
            },
            {
                "name": "fc2",
                "num_neurons": 2,
                "num_inputs": 15
            }
        ],
        "weights": [
            [
                [
                    0.04409804567694664,
                    0.026339368894696236,
                    0.008044623769819736,
                    0.08329873532056808,
                    0.015722760930657387,
                    0.08717625588178635,
                    -0.34436869621276855,
                    0.6525887250900269,
                    0.2264787256717682,
                    1.2134122848510742,
                    0.11344116926193237,
                    -5.135376930236816,
                    0.18327592313289642,
                    -0.2405770868062973,
                    0.13604451715946198,
                    -0.02014828473329544,
                    0.22381208837032318,
                    -0.3293651044368744,
                    0.9374036192893982,
                    -0.4494474530220032,
                    -1.297519564628601,
                    -0.3745664656162262,
                    -0.08433939516544342
                ],
                [
                    -0.11633433401584625,
                    -0.0494680181145668,
                    0.19551581144332886,
                    0.38254255056381226,
                    0.0006702886312268674,
                    -0.5601605772972107,
                    0.7277306914329529,
                    -0.8068974018096924,
                    -1.1810808181762695,
                    -1.2438338994979858,
                    -0.45566481351852417,
                    0.3096593916416168,
                    1.1035254001617432,
                    0.8171976208686829,
                    -0.008427739143371582,
                    -0.13780920207500458,
                    -0.09965085238218307,
                    -0.07008881121873856,
                    -0.9483686685562134,
                    0.16831143200397491,
                    0.22200226783752441,
                    0.3393802344799042,
                    0.6036822199821472
                ],
                [
                    0.045924555510282516,
                    0.12736596167087555,
                    0.10023648291826248,
                    0.0442039780318737,
                    0.013899115845561028,
                    0.28857433795928955,
                    -0.006591671146452427,
                    0.5923874378204346,
                    -0.32291123270988464,
                    1.006382942199707,
                    0.1668560951948166,
                    -4.609381198883057,
                    -0.5033544898033142,
                    0.35515955090522766,
                    -0.10148193687200546,
                    0.18305876851081848,
                    -0.5551238059997559,
                    0.2703285217285156,
                    1.1366195678710938,
                    -0.21355147659778595,
                    -0.7642048001289368,
                    -0.7329152822494507,
                    -0.02644498273730278
                ],
                [
                    0.11704510450363159,
                    0.20700718462467194,
                    -0.047576673328876495,
                    0.04839031770825386,
                    -0.16809239983558655,
                    -0.49466755986213684,
                    0.283943772315979,
                    0.19685278832912445,
                    0.36816897988319397,
                    0.8620517253875732,
                    0.7629957795143127,
                    0.0558641217648983,
                    -1.6905410289764404,
                    -0.1707247644662857,
                    -0.14961223304271698,
                    0.7176344990730286,
                    -1.1104265451431274,
                    -0.008758899755775928,
                    1.26907479763031,
                    0.12557701766490936,
                    -0.1548120528459549,
                    0.05642471835017204,
                    -0.5317831635475159
                ],
                [
                    0.31543371081352234,
                    0.18996600806713104,
                    0.04475407674908638,
                    0.06926557421684265,
                    -0.02746308594942093,
                    -0.2727339267730713,
                    0.12146241217851639,
                    0.559430718421936,
                    0.8318105340003967,
                    1.3291873931884766,
                    0.8885226249694824,
                    0.5056528449058533,
                    -0.5624254941940308,
                    0.09945603460073471,
                    -0.014992937445640564,
                    -0.15875965356826782,
                    0.08577479422092438,
                    0.26400309801101685,
                    1.6282060146331787,
                    0.9880934953689575,
                    0.3222067058086395,
                    0.02613336592912674,
                    -0.6537037491798401
                ],
                [
                    -0.11497747153043747,
                    0.005505685694515705,
                    0.18974469602108002,
                    0.3704107999801636,
                    -0.01750827208161354,
                    -0.6504759788513184,
                    0.4850621819496155,
                    -1.01165771484375,
                    -1.1023508310317993,
                    -0.885960042476654,
                    -0.5620847344398499,
                    0.223460391163826,
                    1.4007307291030884,
                    0.8143949508666992,
                    0.16709856688976288,
                    -0.1720803827047348,
                    -0.10436422377824783,
                    -0.3636394143104553,
                    -0.9141030311584473,
                    0.3771217167377472,
                    -0.32289057970046997,
                    0.3475610911846161,
                    0.6004512310028076
                ],
                [
                    -0.1054929792881012,
                    0.08320784568786621,
                    0.016555823385715485,
                    0.16061758995056152,
                    0.07685592770576477,
                    0.06163645535707474,
                    0.007913526147603989,
                    0.43332812190055847,
                    0.015566445887088776,
                    0.6490942239761353,
                    0.0712684839963913,
                    -4.935929775238037,
                    0.39821743965148926,
                    -0.290101557970047,
                    -0.05718189477920532,
                    -0.017468227073550224,
                    0.09296167641878128,
                    -0.05608752742409706,
                    1.5438706874847412,
                    -3.4830634593963623,
                    -1.2181581258773804,
                    -0.4678497016429901,
                    -0.33696091175079346
                ],
                [
                    -0.015996839851140976,
                    -0.016830869019031525,
                    0.03373446315526962,
                    0.05043533071875572,
                    0.020557617768645287,
                    0.30788689851760864,
                    -0.10345848649740219,
                    0.5998356938362122,
                    -0.032834261655807495,
                    0.6437618136405945,
                    0.07084901630878448,
                    -5.3601226806640625,
                    0.276420533657074,
                    -0.2814900875091553,
                    -0.12264274805784225,
                    0.010790757834911346,
                    -0.15773731470108032,
                    0.1545092612504959,
                    0.9615740776062012,
                    -0.4621540307998657,
                    -1.39577317237854,
                    -0.2408258020877838,
                    -0.1904795616865158
                ],
                [
                    -0.08882231265306473,
                    0.19902357459068298,
                    0.08960045129060745,
                    0.13059453666210175,
                    -0.035469427704811096,
                    0.5662086009979248,
                    -0.2660398483276367,
                    0.5793577432632446,
                    0.9015876650810242,
                    1.629385232925415,
                    0.694104015827179,
                    -0.5088790059089661,
                    -0.8168101906776428,
                    -0.7652909755706787,
                    0.01181173324584961,
                    0.015521781519055367,
                    0.10688228905200958,
                    0.4302854835987091,
                    1.4550352096557617,
                    -0.6067006587982178,
                    -0.23191586136817932,
                    -0.7988818287849426,
                    -0.48847079277038574
                ],
                [
                    0.08100781589746475,
                    0.1690620332956314,
                    0.02543134056031704,
                    0.09969823062419891,
                    -0.016335221007466316,
                    0.001841762918047607,
                    0.2896406650543213,
                    -5.53765344619751,
                    -0.9581553339958191,
                    -0.3235904276371002,
                    -0.13202039897441864,
                    0.180649995803833,
                    0.08618659526109695,
                    0.36634787917137146,
                    0.12638552486896515,
                    -5.245544910430908,
                    -1.2984148263931274,
                    -0.2928093671798706,
                    0.07445020973682404,
                    0.07815013825893402,
                    -0.055032260715961456,
                    -0.07028057426214218,
                    -0.26718389987945557
                ],
                [
                    0.09409116953611374,
                    0.014783832244575024,
                    0.05890031158924103,
                    0.0855729803442955,
                    -0.0020750751718878746,
                    0.14350609481334686,
                    -0.08453360199928284,
                    0.42816445231437683,
                    0.3621731400489807,
                    1.1424787044525146,
                    -0.10557723045349121,
                    -3.830733299255371,
                    0.15311984717845917,
                    -0.26081177592277527,
                    -0.12279044836759567,
                    -0.14249418675899506,
                    0.3285631835460663,
                    -0.2988066077232361,
                    1.5133028030395508,
                    0.10125434398651123,
                    0.10639722645282745,
                    -0.18903478980064392,
                    -0.5082690715789795
                ],
                [
                    0.05769083648920059,
                    -0.018853429704904556,
                    -0.020616576075553894,
                    -0.012385550886392593,
                    0.02849731780588627,
                    0.20816035568714142,
                    -0.08962702751159668,
                    1.0856797695159912,
                    0.779062807559967,
                    0.8463699817657471,
                    0.6906372904777527,
                    -0.6140429377555847,
                    -0.8164504170417786,
                    -0.28101617097854614,
                    -0.06759013235569,
                    0.05651632323861122,
                    0.14799588918685913,
                    0.2437465339899063,
                    1.3236337900161743,
                    -0.35033461451530457,
                    0.004291115794330835,
                    -0.4829496741294861,
                    -0.6167479753494263
                ],
                [
                    -0.1915690302848816,
                    0.2660239040851593,
                    0.2177981436252594,
                    0.456210196018219,
                    0.17948566377162933,
                    -0.788321852684021,
                    0.5765888690948486,
                    -0.993196427822113,
                    -1.4914363622665405,
                    -0.8032771348953247,
                    -0.6922436952590942,
                    0.44213056564331055,
                    0.8786792159080505,
                    0.5428133606910706,
                    -0.055353134870529175,
                    -0.11488352715969086,
                    0.06506738811731339,
                    -0.19420672953128815,
                    -1.1333754062652588,
                    -0.04964530095458031,
                    0.2843998372554779,
                    0.211042582988739,
                    0.530662477016449
                ],
                [
                    -0.007380225695669651,
                    0.6231316924095154,
                    0.2861425280570984,
                    0.19395224750041962,
                    0.026720905676484108,
                    0.3346608877182007,
                    -0.24042706191539764,
                    0.7073611617088318,
                    0.7450600862503052,
                    1.4237279891967773,
                    0.3593064844608307,
                    0.04842933267354965,
                    -0.9579195976257324,
                    -0.4649566113948822,
                    0.16811566054821014,
                    0.0753234475851059,
                    0.07797456532716751,
                    0.11728312820196152,
                    1.593805193901062,
                    0.11312440782785416,
                    -0.21780958771705627,
                    -0.21832561492919922,
                    -0.3288591206073761
                ],
                [
                    -0.030641494318842888,
                    0.2538274824619293,
                    0.1410001516342163,
                    0.24704374372959137,
                    0.006071729585528374,
                    0.4864145815372467,
                    -0.2122489959001541,
                    0.6555942893028259,
                    0.8693231344223022,
                    1.5462172031402588,
                    0.7011815905570984,
                    0.02345619723200798,
                    -1.0439629554748535,
                    -0.5629423260688782,
                    -0.16350190341472626,
                    0.311774879693985,
                    0.22151151299476624,
                    -0.019358156248927116,
                    1.7919034957885742,
                    0.14300590753555298,
                    -0.3699520230293274,
                    -0.18468381464481354,
                    -0.3940986394882202
                ]
            ],
            [
                [
                    1.932775616645813,
                    -0.3409040570259094,
                    1.1264878511428833,
                    0.609503984451294,
                    0.7279502153396606,
                    -0.7313333749771118,
                    2.0721628665924072,
                    2.120389699935913,
                    0.30926308035850525,
                    -4.172767639160156,
                    0.45313745737075806,
                    -0.018466928973793983,
                    -0.5261987447738647,
                    0.46894484758377075,
                    0.2885816693305969
                ],
                [
                    -2.0754828453063965,
                    0.5375989675521851,
                    -1.088875651359558,
                    -0.838137686252594,
                    -0.8486549854278564,
                    0.43719005584716797,
                    -2.1296889781951904,
                    -2.042137861251831,
                    -0.4720964729785919,
                    4.286134243011475,
                    -0.5008289217948914,
                    0.20149783790111542,
                    0.336459755897522,
                    -0.3504161834716797,
                    -0.21112623810768127
                ]
            ]
        ],
        "biases": [
            [
                0.3906739354133606,
                0.3401334583759308,
                -0.025938071310520172,
                -0.10428758710622787,
                -0.11646571010351181,
                0.42976105213165283,
                0.33296552300453186,
                0.18155957758426666,
                0.28019949793815613,
                0.15904484689235687,
                0.14764325320720673,
                0.00923230405896902,
                0.33945512771606445,
                0.19496339559555054,
                0.2193368375301361
            ],
            [
                -0.08274157345294952,
                -0.18493974208831787
            ]
        ]
    }
}