{
    "architecture": [
        {
            "type": "Linear",
            "input_features": 9,
            "output_features": 36,
            "activation": "relu"
        },
        {
            "type": "Linear",
            "input_features": 36,
            "output_features": 36,
            "activation": "relu"
        },
        {
            "type": "Linear",
            "input_features": 36,
            "output_features": 9,
            "activation": "sigmoid"
        }
    ],
    "parameters": {
        "layers": [
            {
                "name": "dl1",
                "num_neurons": 36,
                "num_inputs": 9
            },
            {
                "name": "dl2",
                "num_neurons": 36,
                "num_inputs": 36
            },
            {
                "name": "output_layer",
                "num_neurons": 9,
                "num_inputs": 36
            }
        ],
        "weights": [
            [
                [
                    0.05640793219208717,
                    0.15391981601715088,
                    -2.317902088165283,
                    0.08552087843418121,
                    0.02942560240626335,
                    0.09920232743024826,
                    0.5476365089416504,
                    0.6462380290031433,
                    0.5706221461296082
                ],
                [
                    0.19174468517303467,
                    -0.032341647893190384,
                    0.15276400744915009,
                    0.0663057267665863,
                    0.9898442029953003,
                    -0.18421274423599243,
                    -0.253916472196579,
                    -0.5642958283424377,
                    -0.867156445980072
                ],
                [
                    -0.6042157411575317,
                    -0.378618448972702,
                    1.0256576538085938,
                    -0.31625720858573914,
                    1.015838384628296,
                    -0.3899838328361511,
                    0.9125803709030151,
                    -0.40404513478279114,
                    -0.7722622156143188
                ],
                [
                    -0.13524480164051056,
                    -0.09229545295238495,
                    -0.11046922206878662,
                    0.05094374343752861,
                    -0.0034297513775527477,
                    0.049036167562007904,
                    0.5265387296676636,
                    -1.2258981466293335,
                    0.9412161707878113
                ],
                [
                    -0.6464472413063049,
                    -0.49866852164268494,
                    0.8360041379928589,
                    -0.4702082872390747,
                    -0.6679592728614807,
                    0.8185678720474243,
                    -0.7182130217552185,
                    -0.4902532994747162,
                    0.6565554141998291
                ],
                [
                    0.2731468677520752,
                    0.26322752237319946,
                    -0.15652354061603546,
                    0.2507648169994354,
                    0.49548885226249695,
                    0.1299131214618683,
                    -2.1654913425445557,
                    0.2803986370563507,
                    0.2973330318927765
                ],
                [
                    -0.6119102835655212,
                    -0.3811262249946594,
                    -0.20555302500724792,
                    -0.3351944088935852,
                    1.455820083618164,
                    0.053295426070690155,
                    -0.0673743411898613,
                    0.16313430666923523,
                    0.37781238555908203
                ],
                [
                    0.6040681004524231,
                    -0.08384907990694046,
                    -0.2110658884048462,
                    -0.3854732811450958,
                    0.5085283517837524,
                    -0.7445446252822876,
                    -0.5852417945861816,
                    -0.24613147974014282,
                    0.29660657048225403
                ],
                [
                    -0.4305277168750763,
                    -0.34030038118362427,
                    -0.2766757309436798,
                    -0.32366716861724854,
                    -0.42894890904426575,
                    -0.16902850568294525,
                    -0.448604017496109,
                    2.1035280227661133,
                    -0.49074122309684753
                ],
                [
                    -0.26725926995277405,
                    -0.2470296174287796,
                    -0.34946027398109436,
                    -0.4088360071182251,
                    -0.38775765895843506,
                    -0.30845212936401367,
                    1.9487066268920898,
                    -0.26529207825660706,
                    -0.3706420660018921
                ],
                [
                    0.24122922122478485,
                    0.16426028311252594,
                    0.19640526175498962,
                    -1.8620270490646362,
                    -0.14624203741550446,
                    0.11829041689634323,
                    -0.3050467073917389,
                    -0.12537160515785217,
                    0.06702426820993423
                ],
                [
                    1.9242119789123535,
                    -0.20636612176895142,
                    -0.4350906312465668,
                    -0.3449985682964325,
                    -0.5421076416969299,
                    -0.4376083016395569,
                    -0.4500010013580322,
                    -0.31878945231437683,
                    -0.4753280580043793
                ],
                [
                    -0.042389385402202606,
                    -0.29398679733276367,
                    1.450560450553894,
                    0.025186270475387573,
                    -0.3736528754234314,
                    -0.2437143474817276,
                    -0.08015996217727661,
                    -0.29385247826576233,
                    -0.36262691020965576
                ],
                [
                    -0.39490532875061035,
                    0.27185675501823425,
                    -0.4336591362953186,
                    -0.06160419061779976,
                    0.4477117955684662,
                    -0.031731486320495605,
                    -0.34499210119247437,
                    0.2738698720932007,
                    -0.36834701895713806
                ],
                [
                    0.022272666916251183,
                    -1.4478627443313599,
                    0.04078928381204605,
                    -0.026662392541766167,
                    -0.8125156164169312,
                    0.2276819497346878,
                    -0.07702381163835526,
                    0.7233030200004578,
                    0.2045479565858841
                ],
                [
                    -0.4305710792541504,
                    -0.4933534562587738,
                    -0.4848916828632355,
                    0.2460312396287918,
                    -0.2529986500740051,
                    0.9859151840209961,
                    0.2373693883419037,
                    0.06744265556335449,
                    0.40443992614746094
                ],
                [
                    -0.5309954881668091,
                    1.0785759687423706,
                    -0.5094717144966125,
                    -0.39972132444381714,
                    1.003133773803711,
                    -0.4763323664665222,
                    -0.5325396656990051,
                    1.0792607069015503,
                    -0.5739830732345581
                ],
                [
                    -2.1947855949401855,
                    0.2385222315788269,
                    0.18610592186450958,
                    0.18080981075763702,
                    0.06632186472415924,
                    0.15191157162189484,
                    0.2530335485935211,
                    0.29311150312423706,
                    0.4297044575214386
                ],
                [
                    -0.08063585311174393,
                    -0.37337303161621094,
                    -0.6338877081871033,
                    0.18960979580879211,
                    -1.4255272150039673,
                    -0.30341672897338867,
                    0.5184579491615295,
                    0.5033737421035767,
                    0.0260056983679533
                ],
                [
                    0.5592443943023682,
                    0.294034868478775,
                    0.05069899186491966,
                    0.5670209527015686,
                    0.07417851686477661,
                    0.3691657483577728,
                    0.3501453697681427,
                    0.19496634602546692,
                    -2.1185803413391113
                ],
                [
                    -0.1364944726228714,
                    0.13211312890052795,
                    0.027417384088039398,
                    -0.8135278224945068,
                    -0.081824392080307,
                    0.09988240897655487,
                    -0.003561233403161168,
                    0.0945543721318245,
                    -0.1949753612279892
                ],
                [
                    -0.012993339449167252,
                    -0.07554784417152405,
                    0.23273366689682007,
                    -0.4149012863636017,
                    -1.3780440092086792,
                    -0.2145451158285141,
                    0.012196267023682594,
                    -0.42487460374832153,
                    0.11816581338644028
                ],
                [
                    0.8429005146026611,
                    0.9219782948493958,
                    0.7419806122779846,
                    -0.3778058588504791,
                    -0.8656426668167114,
                    -0.41772007942199707,
                    -0.8727331757545471,
                    -0.6674349308013916,
                    -0.8870939612388611
                ],
                [
                    -0.2176164835691452,
                    -0.36717280745506287,
                    -1.2291216850280762,
                    0.577256441116333,
                    0.5707430839538574,
                    0.01764323003590107,
                    0.5703698992729187,
                    -0.6078113317489624,
                    -0.43868279457092285
                ],
                [
                    -0.18398545682430267,
                    0.22725814580917358,
                    -0.12380985170602798,
                    0.4154004454612732,
                    -1.2551206350326538,
                    0.460634708404541,
                    -0.6216845512390137,
                    0.002150574466213584,
                    0.1667291671037674
                ],
                [
                    0.035809457302093506,
                    -0.51032555103302,
                    -0.37259650230407715,
                    1.0010113716125488,
                    -0.2287491261959076,
                    -0.16968339681625366,
                    -0.23645685613155365,
                    -0.24870561063289642,
                    -0.07660739868879318
                ],
                [
                    -0.18635569512844086,
                    2.004560947418213,
                    -0.3277524709701538,
                    -0.1732087880373001,
                    -0.40598440170288086,
                    -0.17884816229343414,
                    -0.1120820865035057,
                    -0.09143148362636566,
                    -0.1592831015586853
                ],
                [
                    0.18038958311080933,
                    0.4262690246105194,
                    0.13969780504703522,
                    0.4433664083480835,
                    0.32614943385124207,
                    -2.289090394973755,
                    0.20056836307048798,
                    0.40442991256713867,
                    0.3658303916454315
                ],
                [
                    -0.3681236803531647,
                    0.06786225736141205,
                    0.1429956704378128,
                    0.4937898814678192,
                    -0.7337920069694519,
                    0.42944660782814026,
                    0.712370753288269,
                    0.17407949268817902,
                    -0.6057056784629822
                ],
                [
                    0.499743789434433,
                    0.47663915157318115,
                    -0.0744355097413063,
                    0.7316038608551025,
                    0.4186024069786072,
                    0.28661105036735535,
                    0.5265903472900391,
                    -1.6537758111953735,
                    0.15849438309669495
                ],
                [
                    -0.25150248408317566,
                    -0.16147589683532715,
                    -0.30181530117988586,
                    -0.24421869218349457,
                    -0.5076038241386414,
                    -0.31507664918899536,
                    -0.5879732966423035,
                    -0.03330201283097267,
                    1.720664620399475
                ],
                [
                    -0.27455610036849976,
                    -0.17163734138011932,
                    -0.23224414885044098,
                    -0.4940539300441742,
                    -0.47126320004463196,
                    2.1290128231048584,
                    -0.36863601207733154,
                    -0.445700079202652,
                    -0.4159543812274933
                ],
                [
                    -0.33658310770988464,
                    -0.14167119562625885,
                    -0.19581478834152222,
                    -1.477036714553833,
                    0.0053414953872561455,
                    -0.26173052191734314,
                    0.5627994537353516,
                    0.6320124268531799,
                    0.7960242629051208
                ],
                [
                    0.5355212688446045,
                    0.11476635187864304,
                    0.13840070366859436,
                    -0.09159057587385178,
                    0.3172551095485687,
                    -0.24629245698451996,
                    0.09477024525403976,
                    -1.3150677680969238,
                    0.21179881691932678
                ],
                [
                    0.7412536144256592,
                    -1.914875864982605,
                    -0.006530423182994127,
                    0.26978135108947754,
                    0.6621012091636658,
                    0.1645975559949875,
                    0.4059601128101349,
                    0.2603408098220825,
                    0.39247122406959534
                ],
                [
                    -0.6636689901351929,
                    -0.26893821358680725,
                    -0.33868104219436646,
                    0.9831928014755249,
                    0.8304072022438049,
                    1.0028244256973267,
                    -0.4819357395172119,
                    -0.303525447845459,
                    -0.6716049313545227
                ]
            ],
            [
                [
                    -0.20966443419456482,
                    -0.13059771060943604,
                    0.5422465801239014,
                    0.3073859214782715,
                    0.350440114736557,
                    0.5502758622169495,
                    -0.2672945559024811,
                    0.5596871972084045,
                    0.18876132369041443,
                    1.0049059391021729,
                    -0.1150779277086258,
                    0.5652267932891846,
                    -0.15670110285282135,
                    0.03633950278162956,
                    -0.2745097875595093,
                    0.28252026438713074,
                    0.6455630660057068,
                    0.6153424382209778,
                    -0.12340528517961502,
                    -0.3728168308734894,
                    0.09538398683071136,
                    -0.35044601559638977,
                    0.4523356854915619,
                    -0.17966187000274658,
                    0.37110310792922974,
                    -0.02660701796412468,
                    -0.2127847820520401,
                    1.2373433113098145,
                    -0.013701814226806164,
                    -0.07261976599693298,
                    -0.036530572921037674,
                    1.285915732383728,
                    0.023264668881893158,
                    0.24272651970386505,
                    0.12578141689300537,
                    0.6005319952964783
                ],
                [
                    -0.01066791731864214,
                    -0.21666423976421356,
                    -0.47577598690986633,
                    0.011058961041271687,
                    -0.288790225982666,
                    -0.12291934341192245,
                    0.043152473866939545,
                    0.11162827163934708,
                    1.0520243644714355,
                    -0.3279024660587311,
                    -0.44764798879623413,
                    0.5340794920921326,
                    0.6974894404411316,
                    0.5935674905776978,
                    -0.5474966764450073,
                    0.2669655680656433,
                    -0.37320852279663086,
                    -0.1383993774652481,
                    -0.22373071312904358,
                    -0.6304571628570557,
                    0.8181371688842773,
                    0.3944210410118103,
                    -0.333003968000412,
                    0.16283084452152252,
                    -0.07707294821739197,
                    0.326611191034317,
                    -1.0111782550811768,
                    0.6225955486297607,
                    -0.024556918069720268,
                    0.5486851930618286,
                    -0.3833600878715515,
                    0.9944411516189575,
                    -0.4287538230419159,
                    0.3038196563720703,
                    -0.5067992806434631,
                    -0.40652719140052795
                ],
                [
                    0.2510088086128235,
                    0.11815667152404785,
                    -0.2623133957386017,
                    0.5033357739448547,
                    -0.46896177530288696,
                    -0.7522516846656799,
                    0.09828168153762817,
                    -0.17675665020942688,
                    0.17628125846385956,
                    0.061408087611198425,
                    0.06292964518070221,
                    0.9461307525634766,
                    0.08921656012535095,
                    0.10248305648565292,
                    -0.044839732348918915,
                    -0.2775571048259735,
                    -0.17887744307518005,
                    -0.706457793712616,
                    -0.0479448027908802,
                    0.11734211444854736,
                    -0.03947637602686882,
                    0.5090761780738831,
                    -0.47267237305641174,
                    0.43783262372016907,
                    -0.04686771333217621,
                    -0.04172341525554657,
                    0.04985760152339935,
                    0.07844796031713486,
                    -0.2916244566440582,
                    0.067817822098732,
                    0.49357375502586365,
                    0.11032494157552719,
                    -0.33636200428009033,
                    -0.24386592209339142,
                    0.047026388347148895,
                    0.11890382319688797
                ],
                [
                    -0.23609229922294617,
                    0.36032798886299133,
                    -0.059614844620227814,
                    0.07476981729269028,
                    -0.12699538469314575,
                    0.4471594989299774,
                    -1.163595199584961,
                    0.09137153625488281,
                    -0.3798427879810333,
                    -0.37220752239227295,
                    -0.43028685450553894,
                    -0.14795039594173431,
                    0.34935495257377625,
                    -0.025773556903004646,
                    0.1495712548494339,
                    0.3177412450313568,
                    0.03931806981563568,
                    0.05595507472753525,
                    -0.1514376550912857,
                    0.03321652486920357,
                    -0.4115876853466034,
                    -0.04011785611510277,
                    0.07403481751680374,
                    -0.8928325176239014,
                    0.6055006384849548,
                    0.388795405626297,
                    -0.12322843819856644,
                    -0.7560700178146362,
                    0.3886059820652008,
                    0.3661079704761505,
                    -0.6356030106544495,
                    0.22983357310295105,
                    -0.5153531432151794,
                    -0.015327570028603077,
                    -0.1423054188489914,
                    -0.12532548606395721
                ],
                [
                    0.041867438703775406,
                    -0.007432511076331139,
                    -0.019444957375526428,
                    -0.05372451990842819,
                    0.06644430011510849,
                    -0.07122284919023514,
                    -0.03211123123764992,
                    -0.16064880788326263,
                    -0.06063561514019966,
                    0.12313652783632278,
                    0.13188785314559937,
                    -0.04922477528452873,
                    -0.1264418661594391,
                    -0.12381011247634888,
                    -0.10421273112297058,
                    -0.06788869202136993,
                    -0.16434702277183533,
                    -0.13469114899635315,
                    -0.1354772299528122,
                    -0.12116483598947525,
                    -0.08136279881000519,
                    -0.007668399251997471,
                    -0.13360467553138733,
                    -0.10198700428009033,
                    0.02194080501794815,
                    -0.1526777148246765,
                    -0.06897188723087311,
                    -0.09540807455778122,
                    0.005138428881764412,
                    -0.01588951051235199,
                    -0.04275767132639885,
                    0.06870487332344055,
                    -0.025615232065320015,
                    -0.12209924310445786,
                    -0.15675859153270721,
                    0.03684116154909134
                ],
                [
                    -0.017301049083471298,
                    0.024150362238287926,
                    0.16819052398204803,
                    -0.3579798936843872,
                    -0.03972514718770981,
                    -0.2941824495792389,
                    0.5489404201507568,
                    0.3201397955417633,
                    0.4842827022075653,
                    -0.49384090304374695,
                    0.15336860716342926,
                    -0.35748231410980225,
                    -0.16943281888961792,
                    -0.44178494811058044,
                    0.12146195769309998,
                    -0.010345525108277798,
                    -0.6495954394340515,
                    -0.14980323612689972,
                    0.6381511092185974,
                    0.10094816982746124,
                    0.2520798444747925,
                    -0.2869342863559723,
                    0.0827041044831276,
                    0.1633969098329544,
                    0.3153618276119232,
                    0.28987595438957214,
                    0.6345234513282776,
                    1.2259621620178223,
                    0.031930435448884964,
                    0.6083696484565735,
                    -0.15858685970306396,
                    1.5327539443969727,
                    0.1697872430086136,
                    0.5367333292961121,
                    0.12439170479774475,
                    -0.29533177614212036
                ],
                [
                    0.01078198291361332,
                    0.014586045406758785,
                    -0.21889641880989075,
                    0.04030999168753624,
                    -0.09112682938575745,
                    0.12988954782485962,
                    -0.21490685641765594,
                    0.21502941846847534,
                    -0.22907863557338715,
                    -0.20260104537010193,
                    -0.37894099950790405,
                    -0.6824358701705933,
                    0.020386790856719017,
                    0.09156899154186249,
                    0.2349051833152771,
                    0.21913845837116241,
                    -0.209623321890831,
                    0.5985224843025208,
                    -0.2224181443452835,
                    0.36499693989753723,
                    -1.4167685508728027,
                    -0.5157411098480225,
                    -0.13352042436599731,
                    -0.18974372744560242,
                    0.7794832587242126,
                    1.9238132238388062,
                    -0.08487424999475479,
                    1.0763118267059326,
                    0.3764404356479645,
                    0.31906434893608093,
                    -0.5095037221908569,
                    -0.8904436826705933,
                    -0.5128350257873535,
                    -0.16211362183094025,
                    -0.1361507773399353,
                    0.18562555313110352
                ],
                [
                    0.3341737389564514,
                    -0.16131697595119476,
                    -0.2545575499534607,
                    -0.18263591825962067,
                    0.4012463390827179,
                    0.5400862097740173,
                    -0.23116160929203033,
                    0.07229872792959213,
                    -0.09162455052137375,
                    -0.0830443799495697,
                    -0.05634851008653641,
                    -0.25650644302368164,
                    0.1867092102766037,
                    0.45413753390312195,
                    0.6163160800933838,
                    -0.4621543288230896,
                    -0.22535045444965363,
                    -0.10779496282339096,
                    -0.19494564831256866,
                    -0.2230568528175354,
                    0.035631243139505386,
                    0.056007418781518936,
                    -0.15885329246520996,
                    -0.03907546028494835,
                    -0.05965731292963028,
                    -0.11438635736703873,
                    1.9868547916412354,
                    -0.18732906877994537,
                    -0.04101117327809334,
                    0.48035988211631775,
                    -0.25443315505981445,
                    0.023982109501957893,
                    0.09775391966104507,
                    0.01687009446322918,
                    0.8759070038795471,
                    0.400546133518219
                ],
                [
                    -0.9858922362327576,
                    0.36885151267051697,
                    0.4177296459674835,
                    0.029065879061818123,
                    0.05200757458806038,
                    -0.28937605023384094,
                    -0.39095810055732727,
                    0.2431962788105011,
                    0.4223962128162384,
                    0.21256907284259796,
                    0.6224496364593506,
                    0.04282526299357414,
                    0.0073212930001318455,
                    0.015309794805943966,
                    -0.21081919968128204,
                    -0.5298371315002441,
                    -0.009978665970265865,
                    -0.28856849670410156,
                    0.02012275531888008,
                    1.2336091995239258,
                    -0.1906248927116394,
                    0.20793262124061584,
                    0.48760995268821716,
                    -0.05892748013138771,
                    0.24487563967704773,
                    -0.13498486578464508,
                    -0.03794894739985466,
                    0.7642806172370911,
                    -0.15444032847881317,
                    -0.36032575368881226,
                    0.20048533380031586,
                    0.2510720491409302,
                    -0.1904413402080536,
                    0.2209503948688507,
                    -0.12159229069948196,
                    -0.011730080470442772
                ],
                [
                    0.22813744843006134,
                    -0.10726921260356903,
                    0.3996526300907135,
                    -0.23344138264656067,
                    0.4235760271549225,
                    -0.5507714748382568,
                    -0.5850427150726318,
                    -0.1218646764755249,
                    0.10957366973161697,
                    -0.21549244225025177,
                    -0.06425721943378448,
                    -0.2979361116886139,
                    0.9930532574653625,
                    -0.34559163451194763,
                    0.13854257762432098,
                    -0.43334531784057617,
                    0.08636010438203812,
                    0.9045917391777039,
                    -0.02019580453634262,
                    0.2592298984527588,
                    0.20212379097938538,
                    0.08918733894824982,
                    -0.06408445537090302,
                    -0.7210207581520081,
                    0.4180932343006134,
                    0.03777541220188141,
                    0.02105022221803665,
                    0.2567136287689209,
                    -0.367536723613739,
                    0.04594739153981209,
                    -0.14762313663959503,
                    0.09854869544506073,
                    0.2661398947238922,
                    0.12201213091611862,
                    0.0562220998108387,
                    0.23753657937049866
                ],
                [
                    0.48322445154190063,
                    -0.11435583233833313,
                    -0.02372857742011547,
                    0.19415511190891266,
                    -0.43764087557792664,
                    -0.58309006690979,
                    -0.03873205929994583,
                    -0.4099116623401642,
                    -0.07569526135921478,
                    1.2251014709472656,
                    -0.3078797459602356,
                    -0.3504575192928314,
                    -0.2443149983882904,
                    0.4335050582885742,
                    -0.4996728301048279,
                    0.14166408777236938,
                    0.020699461922049522,
                    0.05056818947196007,
                    -0.41181156039237976,
                    -0.015952231362462044,
                    -0.015577182173728943,
                    0.2033163607120514,
                    -0.5753970742225647,
                    0.489719420671463,
                    -0.07326869666576385,
                    -0.07216378301382065,
                    -0.085352823138237,
                    -0.08479509502649307,
                    0.5195615291595459,
                    -0.16079577803611755,
                    -0.10540392994880676,
                    -0.24306657910346985,
                    -0.19487719237804413,
                    -0.2840101420879364,
                    0.10895417630672455,
                    -0.6073725819587708
                ],
                [
                    1.7104673385620117,
                    0.27009153366088867,
                    0.2898580729961395,
                    0.135041743516922,
                    -0.24315644800662994,
                    0.14519113302230835,
                    0.015008348040282726,
                    -0.4051651656627655,
                    -0.44985783100128174,
                    -0.5733205080032349,
                    0.020631277933716774,
                    0.3039417564868927,
                    -0.44191914796829224,
                    -0.3286439776420593,
                    -0.4724595248699188,
                    0.08352207392454147,
                    0.33100682497024536,
                    0.48818567395210266,
                    0.4011530578136444,
                    0.10287130624055862,
                    -0.28181228041648865,
                    -0.4128023087978363,
                    -0.45794838666915894,
                    0.48110559582710266,
                    -0.1824398934841156,
                    0.30969855189323425,
                    0.08348160237073898,
                    -0.6460206508636475,
                    -0.05611182004213333,
                    0.14065076410770416,
                    0.13443322479724884,
                    0.3584766089916229,
                    0.39632853865623474,
                    -0.7074723243713379,
                    -1.0575215816497803,
                    0.11833978444337845
                ],
                [
                    0.20786532759666443,
                    0.10150809586048126,
                    0.5473110675811768,
                    -0.34869056940078735,
                    -0.2176615595817566,
                    -0.7196250557899475,
                    -0.3221889138221741,
                    0.20479121804237366,
                    0.0235050767660141,
                    -0.21617290377616882,
                    0.7465278506278992,
                    1.7932443618774414,
                    0.11397085338830948,
                    0.001624914351850748,
                    0.055559635162353516,
                    -0.4492741525173187,
                    0.07806853204965591,
                    1.6413211822509766,
                    0.011838224716484547,
                    -0.3092719316482544,
                    0.18958158791065216,
                    -0.0611482635140419,
                    -0.49133750796318054,
                    -0.3975684344768524,
                    0.14834751188755035,
                    0.16964484751224518,
                    0.06731459498405457,
                    0.20024606585502625,
                    0.16752438247203827,
                    -0.008519809693098068,
                    -0.2287101149559021,
                    0.40636375546455383,
                    0.5576152205467224,
                    0.4087662696838379,
                    0.4041968286037445,
                    -0.14049780368804932
                ],
                [
                    -0.588302493095398,
                    -0.591875433921814,
                    -0.08373505622148514,
                    0.26979124546051025,
                    -0.004072354640811682,
                    0.03503187373280525,
                    -0.25243958830833435,
                    0.34992700815200806,
                    0.6892425417900085,
                    0.09171782433986664,
                    0.29155808687210083,
                    0.051866378635168076,
                    0.26357993483543396,
                    -1.087823510169983,
                    -0.26969945430755615,
                    0.13231463730335236,
                    -0.25445130467414856,
                    -0.2772042751312256,
                    1.1436265707015991,
                    -0.11076579242944717,
                    -0.01924426108598709,
                    1.1603561639785767,
                    0.5059045553207397,
                    -0.49731579422950745,
                    1.201966404914856,
                    -0.009954161942005157,
                    0.4420032203197479,
                    -0.4674184024333954,
                    0.40642672777175903,
                    -0.1382296234369278,
                    0.08379967510700226,
                    0.3351286053657532,
                    -0.5541995763778687,
                    0.061431337147951126,
                    -0.6637101769447327,
                    -0.04757272079586983
                ],
                [
                    -0.22956883907318115,
                    0.3567771911621094,
                    0.2535499036312103,
                    0.3126915693283081,
                    0.39600899815559387,
                    0.29102766513824463,
                    -0.35382771492004395,
                    -0.06793761253356934,
                    -0.2642560601234436,
                    0.4519297182559967,
                    -0.3754642605781555,
                    1.4892457723617554,
                    0.04764683544635773,
                    0.2866557240486145,
                    0.41684994101524353,
                    -0.38210687041282654,
                    0.46235281229019165,
                    1.0654683113098145,
                    0.6543340682983398,
                    0.7306122779846191,
                    -0.10255125164985657,
                    0.3456481993198395,
                    0.06884771585464478,
                    0.03181211277842522,
                    -0.43557360768318176,
                    0.15132173895835876,
                    0.33007654547691345,
                    -0.180515319108963,
                    -0.4555785655975342,
                    -0.26187413930892944,
                    0.48407217860221863,
                    0.23243850469589233,
                    0.04325072839856148,
                    -0.30012181401252747,
                    0.42896610498428345,
                    0.6549621224403381
                ],
                [
                    0.3931928873062134,
                    -0.08076245337724686,
                    -0.1791079193353653,
                    0.09703228622674942,
                    0.6028381586074829,
                    0.6852976083755493,
                    0.028592240065336227,
                    0.0651571974158287,
                    0.23356841504573822,
                    0.7948563694953918,
                    -0.0006784744909964502,
                    0.372640460729599,
                    0.6668208241462708,
                    -0.026822127401828766,
                    -0.4170878231525421,
                    -0.17774109542369843,
                    0.49975794553756714,
                    0.14688383042812347,
                    -0.10392393171787262,
                    -0.04242224246263504,
                    -0.0035928969737142324,
                    -0.026793578639626503,
                    0.16434618830680847,
                    -0.20705853402614594,
                    -0.15333619713783264,
                    0.12190846353769302,
                    -0.0949510708451271,
                    -0.041157208383083344,
                    0.33800193667411804,
                    -0.2783350944519043,
                    0.09825913608074188,
                    -0.3889476954936981,
                    -0.16805194318294525,
                    0.12907332181930542,
                    -0.311709463596344,
                    0.5231066942214966
                ],
                [
                    -0.1577325016260147,
                    -0.30506253242492676,
                    -0.2093806266784668,
                    0.13818877935409546,
                    -0.07838209718465805,
                    0.31379616260528564,
                    0.6044141054153442,
                    -0.14014758169651031,
                    0.03818979859352112,
                    -0.08711148798465729,
                    -0.08142194896936417,
                    -0.46750861406326294,
                    -0.06109343096613884,
                    -0.1684584766626358,
                    -0.03822945058345795,
                    0.12247367948293686,
                    -0.22211477160453796,
                    1.0105524063110352,
                    -0.4910316467285156,
                    -0.3667128086090088,
                    0.05275038257241249,
                    -0.6593649387359619,
                    -0.1908131092786789,
                    0.16957353055477142,
                    -0.3573603928089142,
                    -0.13105352222919464,
                    0.26047033071517944,
                    0.2930792570114136,
                    -0.5818461179733276,
                    0.13675031065940857,
                    0.10137870907783508,
                    -0.148856520652771,
                    0.05552835389971733,
                    -0.11990796029567719,
                    -0.0348639078438282,
                    -0.023640727624297142
                ],
                [
                    0.3335549831390381,
                    -0.38912954926490784,
                    -0.4146718680858612,
                    0.0662674754858017,
                    -0.5076107978820801,
                    -0.5571533441543579,
                    -0.11606087535619736,
                    -0.12216205894947052,
                    -0.23337218165397644,
                    0.23180155456066132,
                    -0.6249166131019592,
                    -0.21113060414791107,
                    0.10090674459934235,
                    0.2932274341583252,
                    0.24705900251865387,
                    0.24422842264175415,
                    -0.31464821100234985,
                    -0.6213675141334534,
                    0.4366132915019989,
                    0.11648019403219223,
                    -0.057404886931180954,
                    0.19662919640541077,
                    -0.7984490990638733,
                    -0.19986608624458313,
                    -0.07166323810815811,
                    0.3432181477546692,
                    0.4135223925113678,
                    0.4532812833786011,
                    0.6444351673126221,
                    -0.39337602257728577,
                    -0.28348982334136963,
                    -0.08662348240613937,
                    -0.34343257546424866,
                    -0.2958471179008484,
                    0.5587624311447144,
                    -0.16003915667533875
                ],
                [
                    -0.08388631045818329,
                    0.025317225605249405,
                    -0.08590233325958252,
                    -0.12229958921670914,
                    0.43500620126724243,
                    -0.009277415461838245,
                    0.060721512883901596,
                    0.40111520886421204,
                    0.22345227003097534,
                    -0.03873782232403755,
                    0.4093470275402069,
                    -0.12138239294290543,
                    1.4403752088546753,
                    -0.16201314330101013,
                    -0.11937855929136276,
                    -0.4969783425331116,
                    -0.45094773173332214,
                    0.24473035335540771,
                    -0.2574410140514374,
                    -0.19824539124965668,
                    0.17611601948738098,
                    0.04996355623006821,
                    -0.06495452672243118,
                    -0.60157710313797,
                    0.09427131712436676,
                    -0.2154679298400879,
                    -0.16085803508758545,
                    0.2990805506706238,
                    -0.399417519569397,
                    -0.15689122676849365,
                    0.0056100869551301,
                    -0.43050169944763184,
                    -0.22865800559520721,
                    0.49767038226127625,
                    0.08131378889083862,
                    0.10303064435720444
                ],
                [
                    0.30669817328453064,
                    0.5948129296302795,
                    0.4074923098087311,
                    -0.1060626432299614,
                    0.5667001605033875,
                    -0.4937698543071747,
                    0.573495626449585,
                    0.042342375963926315,
                    -0.204876109957695,
                    0.2584080100059509,
                    0.06972542405128479,
                    0.04206237941980362,
                    -0.08252919465303421,
                    -0.3885030746459961,
                    0.44863763451576233,
                    -0.1865234673023224,
                    0.7827123403549194,
                    0.3486359715461731,
                    0.9713627696037292,
                    -0.507453203201294,
                    -0.1460765302181244,
                    -0.018677329644560814,
                    0.9088619947433472,
                    -0.2956790626049042,
                    0.47427549958229065,
                    0.031061047688126564,
                    -0.1012577936053276,
                    0.37080466747283936,
                    -0.07330922782421112,
                    -0.18041124939918518,
                    0.18027301132678986,
                    0.022358031943440437,
                    0.45280957221984863,
                    0.0067656259052455425,
                    0.19690124690532684,
                    0.22729647159576416
                ],
                [
                    0.458293616771698,
                    -0.2931695580482483,
                    -0.19828832149505615,
                    -0.5158721804618835,
                    -0.1475994884967804,
                    0.04449792951345444,
                    0.17036296427249908,
                    0.23096169531345367,
                    1.874607801437378,
                    0.14793503284454346,
                    0.07457265257835388,
                    -0.02168373577296734,
                    -0.5152256488800049,
                    -0.38648077845573425,
                    -0.07284166663885117,
                    -0.4970707297325134,
                    0.131334125995636,
                    -0.38584643602371216,
                    0.549364447593689,
                    0.4351266920566559,
                    -0.156235471367836,
                    0.004937530029565096,
                    -0.005450291093438864,
                    0.13839131593704224,
                    0.11036822944879532,
                    -0.0282609723508358,
                    -0.07510178536176682,
                    0.4091253876686096,
                    0.1670709252357483,
                    -0.6141713857650757,
                    -0.10632303357124329,
                    -0.44400936365127563,
                    0.03776085004210472,
                    -0.621921956539154,
                    0.22154739499092102,
                    -0.24580304324626923
                ],
                [
                    1.003326654434204,
                    -0.33507439494132996,
                    -0.09085863828659058,
                    0.317989706993103,
                    0.394638329744339,
                    0.46118029952049255,
                    0.010741162113845348,
                    0.01252339594066143,
                    -0.5169597864151001,
                    -0.0971657931804657,
                    0.25970685482025146,
                    -0.3581794202327728,
                    0.6468547582626343,
                    -0.15594017505645752,
                    0.2573140263557434,
                    -0.1565229892730713,
                    0.583625316619873,
                    -0.7819233536720276,
                    0.42553338408470154,
                    0.05599512904882431,
                    0.20110085606575012,
                    -0.22180910408496857,
                    0.3906407356262207,
                    0.1816810518503189,
                    -0.10211088508367538,
                    0.31041213870048523,
                    0.37074801325798035,
                    0.21285392343997955,
                    0.3470480442047119,
                    0.026506444439291954,
                    -0.12173478305339813,
                    -0.10129646956920624,
                    0.5130407810211182,
                    0.18988783657550812,
                    0.9447628259658813,
                    0.10139939934015274
                ],
                [
                    0.06584889441728592,
                    -0.1685565710067749,
                    -0.17125380039215088,
                    -0.07900156080722809,
                    -0.23076921701431274,
                    0.07053974270820618,
                    0.5439788699150085,
                    0.058078519999980927,
                    0.17446252703666687,
                    -0.03731844201683998,
                    -0.2189282774925232,
                    0.16418038308620453,
                    0.0018972255056723952,
                    -0.025245998054742813,
                    -0.23865430057048798,
                    0.2081814557313919,
                    -0.14994633197784424,
                    0.2503770589828491,
                    0.15516121685504913,
                    -0.4418184757232666,
                    -0.10097360610961914,
                    0.3080574870109558,
                    -0.044692497700452805,
                    -0.033559367060661316,
                    0.23195761442184448,
                    -0.1773315668106079,
                    0.2688964009284973,
                    0.3668716251850128,
                    -0.24402062594890594,
                    0.1957588493824005,
                    0.389480322599411,
                    0.19618992507457733,
                    -0.19727523624897003,
                    -0.06232890859246254,
                    -0.38004761934280396,
                    -0.03659449890255928
                ],
                [
                    -0.16699905693531036,
                    1.0737298727035522,
                    0.06722141802310944,
                    0.09643112868070602,
                    0.3822178840637207,
                    0.1905427873134613,
                    1.1737654209136963,
                    0.164846271276474,
                    0.027591770514845848,
                    -0.3024997413158417,
                    -0.36962419748306274,
                    -0.16082622110843658,
                    -0.2571898102760315,
                    0.6669160723686218,
                    0.01391606219112873,
                    -0.15843172371387482,
                    -0.09136462211608887,
                    -0.23222123086452484,
                    -0.6145159602165222,
                    0.07022999227046967,
                    0.1485593467950821,
                    -0.804888129234314,
                    -0.1778428554534912,
                    0.7825061678886414,
                    -0.8300474286079407,
                    -0.3090771734714508,
                    -0.30253198742866516,
                    0.4640648365020752,
                    -0.5757668614387512,
                    0.4231094717979431,
                    -0.15312446653842926,
                    -0.2860701084136963,
                    0.19078832864761353,
                    0.5703639388084412,
                    -0.07234599441289902,
                    -0.0797288790345192
                ],
                [
                    -0.2633478045463562,
                    -0.511914849281311,
                    0.862760066986084,
                    0.2168380469083786,
                    -0.08901854604482651,
                    0.3944224715232849,
                    -0.2776883840560913,
                    0.3651399314403534,
                    0.5205180644989014,
                    0.15297795832157135,
                    0.37802669405937195,
                    -0.3753863573074341,
                    -0.19044342637062073,
                    -0.09044791013002396,
                    0.14576920866966248,
                    0.48571544885635376,
                    -0.07465729117393494,
                    -0.2564021050930023,
                    -0.8256486058235168,
                    -0.31106412410736084,
                    0.3267534673213959,
                    -0.48250967264175415,
                    0.13649094104766846,
                    0.08243230730295181,
                    0.10323891788721085,
                    -0.2630440294742584,
                    1.4493787288665771,
                    0.2457655966281891,
                    -0.13671904802322388,
                    0.12064228951931,
                    0.31631994247436523,
                    0.531322717666626,
                    0.14312948286533356,
                    0.4222398102283478,
                    0.6849466562271118,
                    0.6444989442825317
                ],
                [
                    -0.42910483479499817,
                    0.10970001667737961,
                    -0.08446361124515533,
                    0.21778689324855804,
                    0.34253308176994324,
                    1.4896034002304077,
                    0.4484153389930725,
                    0.7910911440849304,
                    0.5684683322906494,
                    2.1400339603424072,
                    0.3932635188102722,
                    -0.07058092206716537,
                    0.21319995820522308,
                    -0.12747898697853088,
                    0.05488548427820206,
                    0.10001099854707718,
                    -0.23389901220798492,
                    -0.2291179895401001,
                    -0.3747034966945648,
                    -0.6956611275672913,
                    0.007314169313758612,
                    -0.11222518235445023,
                    0.11487016826868057,
                    0.31604278087615967,
                    0.33796247839927673,
                    -0.10195654630661011,
                    -0.018512902781367302,
                    -0.2722417712211609,
                    0.45999085903167725,
                    0.3741928040981293,
                    0.08792507648468018,
                    -0.1954832822084427,
                    -0.35068073868751526,
                    0.2368021458387375,
                    0.12237901240587234,
                    0.23179060220718384
                ],
                [
                    -0.2185640037059784,
                    0.022396627813577652,
                    -0.46442708373069763,
                    -0.14127159118652344,
                    0.0630606859922409,
                    -0.3031160235404968,
                    0.27084073424339294,
                    -0.3382488787174225,
                    -0.09112056344747543,
                    0.33677938580513,
                    1.3855444192886353,
                    0.3568899929523468,
                    -0.19639852643013,
                    -0.10663880407810211,
                    0.11431420594453812,
                    -0.03356444463133812,
                    0.06877408921718597,
                    -0.7617674469947815,
                    -0.10320167988538742,
                    -0.07856376469135284,
                    0.95677649974823,
                    0.16144825518131256,
                    -0.36198946833610535,
                    0.35927873849868774,
                    -0.7180816531181335,
                    -1.221426248550415,
                    0.08409179002046585,
                    -0.5226150751113892,
                    -0.45166951417922974,
                    -0.2974104583263397,
                    -0.10943946242332458,
                    0.42273977398872375,
                    0.9004498720169067,
                    -0.04021001234650612,
                    -0.29949501156806946,
                    -0.26587146520614624
                ],
                [
                    0.0799008458852768,
                    -0.30783113837242126,
                    0.30057966709136963,
                    1.1370643377304077,
                    -0.4284367859363556,
                    0.32716211676597595,
                    0.28497716784477234,
                    0.36847585439682007,
                    -0.28673672676086426,
                    -0.2893596589565277,
                    0.05680759623646736,
                    -0.46175992488861084,
                    0.047127049416303635,
                    0.15938745439052582,
                    0.09740043431520462,
                    -0.08473826199769974,
                    0.1607055813074112,
                    0.028657304123044014,
                    -0.12181590497493744,
                    1.6983098983764648,
                    0.36772480607032776,
                    0.02849789522588253,
                    0.18978367745876312,
                    -0.4501309394836426,
                    0.1976649910211563,
                    0.03498243913054466,
                    -0.13924789428710938,
                    0.08859845250844955,
                    -0.1849273443222046,
                    -0.38601556420326233,
                    1.992102026939392,
                    0.37457114458084106,
                    0.22750777006149292,
                    -0.1508965790271759,
                    -0.21282239258289337,
                    -0.060674622654914856
                ],
                [
                    -0.01851866953074932,
                    0.3390560746192932,
                    0.02779468335211277,
                    -0.06959795206785202,
                    0.32275763154029846,
                    0.28876498341560364,
                    0.4299817681312561,
                    -0.2136693298816681,
                    -0.2134244441986084,
                    -0.18838663399219513,
                    0.6438022255897522,
                    -0.2668893337249756,
                    -0.4444429278373718,
                    0.5344324707984924,
                    0.10750008374452591,
                    0.11911429464817047,
                    0.20228661596775055,
                    0.08151817321777344,
                    -0.49631768465042114,
                    -0.44146671891212463,
                    0.7824400663375854,
                    -0.576693058013916,
                    -0.14142368733882904,
                    0.010353382676839828,
                    -0.5981653928756714,
                    -0.1158270388841629,
                    0.05568265542387962,
                    -0.3631311357021332,
                    -0.22534814476966858,
                    -0.4335709810256958,
                    -0.4069553315639496,
                    0.1289152204990387,
                    0.5596672296524048,
                    -0.009493818506598473,
                    0.0034944964572787285,
                    -0.34648028016090393
                ],
                [
                    0.168526753783226,
                    -0.40076276659965515,
                    -0.1332724392414093,
                    -0.08563272655010223,
                    -0.3036251962184906,
                    -0.4039340615272522,
                    -0.20130451023578644,
                    -0.12742123007774353,
                    -0.15565447509288788,
                    0.46187126636505127,
                    -0.46988341212272644,
                    0.5203801989555359,
                    -0.010717878118157387,
                    -0.4809480905532837,
                    -0.1377982795238495,
                    -0.27333855628967285,
                    -0.2406306266784668,
                    -0.6411721110343933,
                    0.39779573678970337,
                    0.42406123876571655,
                    -0.5948894619941711,
                    0.10509024560451508,
                    -0.1793903112411499,
                    0.25091052055358887,
                    -0.18824079632759094,
                    0.38066911697387695,
                    -0.035795047879219055,
                    0.4023221731185913,
                    0.28051674365997314,
                    0.40612101554870605,
                    -0.14152716100215912,
                    -0.030921997502446175,
                    -0.47571295499801636,
                    -0.02548804134130478,
                    0.24705198407173157,
                    0.048894889652729034
                ],
                [
                    -0.729042649269104,
                    -0.30758553743362427,
                    -0.20023499429225922,
                    0.05035139247775078,
                    -0.5791939496994019,
                    -0.36212602257728577,
                    0.06307798624038696,
                    -0.2569577991962433,
                    0.47294649481773376,
                    -0.3445892930030823,
                    -0.1732032746076584,
                    0.3170894384384155,
                    -0.0816655158996582,
                    0.5571861863136292,
                    -0.15252165496349335,
                    0.10893164575099945,
                    -1.0117714405059814,
                    0.04973576217889786,
                    -0.019554760307073593,
                    -0.33854755759239197,
                    0.7700401544570923,
                    0.49137479066848755,
                    -1.0956788063049316,
                    -0.024379828944802284,
                    -0.0037483004853129387,
                    0.35909953713417053,
                    0.8360270261764526,
                    -0.7880102396011353,
                    -0.47613880038261414,
                    -0.10897216945886612,
                    0.289206862449646,
                    -0.8772268295288086,
                    -0.37686461210250854,
                    0.08104781061410904,
                    0.021331382915377617,
                    -0.7224451899528503
                ],
                [
                    -0.8266789317131042,
                    0.15286549925804138,
                    -0.09361553937196732,
                    0.23288486897945404,
                    0.8643689155578613,
                    0.0830201804637909,
                    0.4138379395008087,
                    -0.35670706629753113,
                    0.28478026390075684,
                    -0.14924460649490356,
                    0.3043820261955261,
                    -0.009127611294388771,
                    -0.32118722796440125,
                    -0.3528217673301697,
                    0.5105011463165283,
                    -0.09109131246805191,
                    -0.5218619704246521,
                    0.88719242811203,
                    -0.27328166365623474,
                    -0.5464784502983093,
                    0.12504476308822632,
                    0.1456308215856552,
                    0.09174394607543945,
                    0.052530139684677124,
                    0.42968103289604187,
                    0.09959202259778976,
                    0.1819392740726471,
                    -0.6723476052284241,
                    -0.29030710458755493,
                    0.26219356060028076,
                    0.06838318705558777,
                    0.048128724098205566,
                    0.06154926121234894,
                    0.09650779515504837,
                    0.2595684230327606,
                    -0.1880771517753601
                ],
                [
                    0.2655320465564728,
                    -0.2790931165218353,
                    1.241376519203186,
                    0.760907769203186,
                    0.28612950444221497,
                    -0.021768741309642792,
                    0.37807437777519226,
                    0.032283272594213486,
                    1.5931586027145386,
                    -0.09324892610311508,
                    0.516031801700592,
                    0.17370517551898956,
                    0.3562188446521759,
                    -0.2485693395137787,
                    -0.6777797937393188,
                    -0.09971698373556137,
                    0.534208357334137,
                    -0.06265594810247421,
                    -0.19493860006332397,
                    0.45622846484184265,
                    -0.22053802013397217,
                    -0.3122665584087372,
                    0.28307294845581055,
                    -0.1207592785358429,
                    -0.22841079533100128,
                    0.569741427898407,
                    0.08703350275754929,
                    -0.4454095661640167,
                    0.4004809856414795,
                    1.4396685361862183,
                    0.5935235619544983,
                    0.022897224873304367,
                    0.08252637088298798,
                    0.7482211589813232,
                    0.33129385113716125,
                    0.859563946723938
                ],
                [
                    -0.23935048282146454,
                    0.5001382827758789,
                    -0.06377841532230377,
                    -0.3215959072113037,
                    -0.17476938664913177,
                    0.25287890434265137,
                    -0.2626892030239105,
                    -0.19780011475086212,
                    -0.16525109112262726,
                    -0.11950214207172394,
                    -0.2664938271045685,
                    -0.02110670879483223,
                    -0.530881941318512,
                    -0.052649032324552536,
                    0.1315341740846634,
                    0.1522561013698578,
                    -0.11258672177791595,
                    -0.3577086329460144,
                    -0.09665719419717789,
                    0.37139183282852173,
                    0.02282123826444149,
                    -0.031707148998975754,
                    -0.12834182381629944,
                    -0.21209153532981873,
                    0.47436708211898804,
                    0.13804256916046143,
                    0.01923215016722679,
                    0.25208088755607605,
                    0.0404379777610302,
                    -0.45825451612472534,
                    -0.04102948680520058,
                    0.7377748489379883,
                    -0.07748579978942871,
                    -0.30704379081726074,
                    -0.07177902013063431,
                    -0.10715515166521072
                ],
                [
                    0.17776745557785034,
                    -0.14807632565498352,
                    0.14439211785793304,
                    -0.12126683443784714,
                    0.1609773188829422,
                    -0.10796373337507248,
                    -0.04278218373656273,
                    0.01791953295469284,
                    -0.13125687837600708,
                    -0.04633219912648201,
                    0.029633967205882072,
                    0.12103581428527832,
                    -0.1256306767463684,
                    -0.14431628584861755,
                    -0.13573969900608063,
                    -0.09724806994199753,
                    -0.001981231849640608,
                    0.11033567786216736,
                    -0.10315220803022385,
                    -0.16700156033039093,
                    0.20189213752746582,
                    0.07937192916870117,
                    -0.08696036785840988,
                    -0.12437047809362411,
                    0.1891161948442459,
                    -0.18226358294487,
                    0.3238504230976105,
                    -0.19696883857250214,
                    -0.03814772889018059,
                    -0.16797257959842682,
                    -0.03095625713467598,
                    0.15022863447666168,
                    -0.05347948521375656,
                    -0.11695650964975357,
                    -0.13316679000854492,
                    -0.19242975115776062
                ],
                [
                    -0.5742960572242737,
                    0.29424795508384705,
                    -0.016623781993985176,
                    -0.49275436997413635,
                    0.26512011885643005,
                    0.760685384273529,
                    -0.22515544295310974,
                    0.19036275148391724,
                    -0.11868219822645187,
                    -0.30719202756881714,
                    0.2323971539735794,
                    -0.7556434273719788,
                    1.3648730516433716,
                    -0.19010181725025177,
                    0.2113332450389862,
                    -0.49623510241508484,
                    -0.19962498545646667,
                    0.7644426226615906,
                    0.4242543578147888,
                    0.16345003247261047,
                    0.20849639177322388,
                    0.2424054592847824,
                    -0.12065540254116058,
                    -0.7340791821479797,
                    -0.10606706887483597,
                    -0.3872433304786682,
                    0.057803358882665634,
                    0.26667189598083496,
                    0.1271386444568634,
                    -0.09853016585111618,
                    -0.25622281432151794,
                    0.24402499198913574,
                    0.10366620123386383,
                    0.12195105105638504,
                    0.3700565695762634,
                    0.40202444791793823
                ]
            ],
            [
                [
                    -0.9317721128463745,
                    0.29101496934890747,
                    0.062087833881378174,
                    -0.02284177392721176,
                    0.16107501089572906,
                    0.5421057939529419,
                    0.27610233426094055,
                    0.07540930807590485,
                    0.28117144107818604,
                    -0.2270839810371399,
                    0.49889233708381653,
                    -0.6310685276985168,
                    -2.1426336765289307,
                    0.20054900646209717,
                    -1.6974073648452759,
                    -0.4720292389392853,
                    -0.4436320960521698,
                    0.7522635459899902,
                    -0.011195983737707138,
                    -0.6940146684646606,
                    -0.0571894608438015,
                    0.179365336894989,
                    0.015057044103741646,
                    -0.03336941823363304,
                    0.43547526001930237,
                    0.2925400137901306,
                    0.24843499064445496,
                    0.456596314907074,
                    0.4936600625514984,
                    0.03886736184358597,
                    0.40702083706855774,
                    -0.8381152749061584,
                    -0.2501237094402313,
                    0.24724015593528748,
                    -0.04096647724509239,
                    0.6175289154052734
                ],
                [
                    0.1091729924082756,
                    1.4985151290893555,
                    0.5994701385498047,
                    0.7419217228889465,
                    -0.169229656457901,
                    -0.7007760405540466,
                    0.1985587477684021,
                    -1.7003881931304932,
                    0.33202260732650757,
                    -0.5234416127204895,
                    0.2948833107948303,
                    0.34330350160598755,
                    -0.20819388329982758,
                    0.4357970356941223,
                    -0.5485068559646606,
                    -0.0037685316056013107,
                    0.37409311532974243,
                    -0.7076176404953003,
                    0.09144686907529831,
                    -0.4549175500869751,
                    0.04873096942901611,
                    -0.6295049786567688,
                    0.3202207088470459,
                    -0.19999362528324127,
                    -1.2831343412399292,
                    0.48261040449142456,
                    0.20470575988292694,
                    0.28650087118148804,
                    0.33412784337997437,
                    -0.8123266100883484,
                    0.1152631938457489,
                    -0.4427715241909027,
                    -0.2360914945602417,
                    0.08457191288471222,
                    -0.3851161301136017,
                    -0.15675361454486847
                ],
                [
                    0.31702128052711487,
                    -0.3001065254211426,
                    0.001630756538361311,
                    0.41141176223754883,
                    0.14484556019306183,
                    0.275016725063324,
                    0.36444520950317383,
                    -0.35295847058296204,
                    0.7086941599845886,
                    -1.4054864645004272,
                    0.2580452859401703,
                    -2.111326217651367,
                    -0.11513105034828186,
                    0.07047592103481293,
                    0.1254400908946991,
                    -0.6595378518104553,
                    0.22792959213256836,
                    -0.28301802277565,
                    -1.809503436088562,
                    -0.26099640130996704,
                    0.13105297088623047,
                    -1.0586217641830444,
                    0.04579952731728554,
                    -0.08565489202737808,
                    0.42775410413742065,
                    0.2065744549036026,
                    0.13406352698802948,
                    -0.2091953009366989,
                    -0.20063307881355286,
                    -0.7650861144065857,
                    0.9399480819702148,
                    0.9203289151191711,
                    -0.5005223751068115,
                    0.6350687146186829,
                    0.10693710297346115,
                    -1.6685038805007935
                ],
                [
                    0.0031665442511439323,
                    0.48153072595596313,
                    1.2845981121063232,
                    -0.5516652464866638,
                    0.162681445479393,
                    0.34802737832069397,
                    -2.9237020015716553,
                    0.08244503289461136,
                    -0.058461181819438934,
                    -0.5454766154289246,
                    0.171417236328125,
                    0.05460384488105774,
                    -0.5355964303016663,
                    -0.19018596410751343,
                    0.3747250437736511,
                    -0.11018650233745575,
                    0.8750585913658142,
                    0.6956783533096313,
                    0.1419423520565033,
                    -0.6528942584991455,
                    0.08469151705503464,
                    -0.7768391966819763,
                    0.8701475858688354,
                    -0.10029150545597076,
                    0.0073491963557899,
                    0.01681503839790821,
                    -2.919842004776001,
                    -0.18353140354156494,
                    0.01071879267692566,
                    0.40956929326057434,
                    0.46391624212265015,
                    -0.32917487621307373,
                    -0.565342128276825,
                    0.44767293334007263,
                    -0.07283404469490051,
                    0.9307616949081421
                ],
                [
                    0.5863670706748962,
                    0.4945378601551056,
                    0.1281280219554901,
                    0.4748144745826721,
                    0.04088759794831276,
                    -0.6666722893714905,
                    0.15620236098766327,
                    0.046886347234249115,
                    -0.16258448362350464,
                    0.020552515983581543,
                    0.33919212222099304,
                    -0.09156813472509384,
                    0.31504198908805847,
                    -3.153642177581787,
                    -0.4780255854129791,
                    -0.12988966703414917,
                    -0.30633777379989624,
                    0.2241627275943756,
                    0.13054277002811432,
                    -1.4830952882766724,
                    0.031478818506002426,
                    -0.3245837390422821,
                    -0.37226489186286926,
                    -2.8292458057403564,
                    0.8745777606964111,
                    -0.08281286060810089,
                    0.16956210136413574,
                    0.2445220947265625,
                    -1.2087814807891846,
                    -0.5147905349731445,
                    0.7734392285346985,
                    -0.7306267023086548,
                    0.05828362703323364,
                    0.2032492309808731,
                    -0.05530480295419693,
                    -0.07109285145998001
                ],
                [
                    -1.4743739366531372,
                    -0.6340044736862183,
                    0.5274090766906738,
                    0.517302930355072,
                    0.03147299960255623,
                    -1.4713419675827026,
                    0.5069597363471985,
                    0.18680499494075775,
                    -0.25841575860977173,
                    -0.20571064949035645,
                    0.4332093298435211,
                    0.3800809383392334,
                    -0.46495747566223145,
                    0.2024916559457779,
                    0.23230984807014465,
                    0.3965407907962799,
                    0.5948927998542786,
                    -0.3578847348690033,
                    0.4193076193332672,
                    -0.4258807599544525,
                    0.6240469813346863,
                    -0.3034183382987976,
                    -0.08824371546506882,
                    0.35632455348968506,
                    -0.5152437686920166,
                    0.26579704880714417,
                    0.8463431596755981,
                    -0.4486367404460907,
                    -1.1621237993240356,
                    -0.7521152496337891,
                    1.4395781755447388,
                    0.6833354830741882,
                    -0.00011174938117619604,
                    -0.3908928632736206,
                    -0.042457014322280884,
                    0.16798537969589233
                ],
                [
                    -0.9986602067947388,
                    0.29937583208084106,
                    0.2819487154483795,
                    0.5901908278465271,
                    -0.04981192201375961,
                    0.7336009740829468,
                    0.04071376100182533,
                    -0.18694019317626953,
                    -0.07643081247806549,
                    0.34956425428390503,
                    -1.1816303730010986,
                    0.5097763538360596,
                    0.6429550647735596,
                    -0.15813778340816498,
                    -0.6180694699287415,
                    -1.0516446828842163,
                    0.5264453887939453,
                    0.7540678381919861,
                    0.09619435667991638,
                    -0.047537464648485184,
                    -0.07411403208971024,
                    -0.6460331082344055,
                    0.08003398030996323,
                    0.32185426354408264,
                    -0.23386792838573456,
                    -2.16388201713562,
                    -0.3159160912036896,
                    0.1523556113243103,
                    0.3848758637905121,
                    -0.09708389639854431,
                    0.7511901259422302,
                    -0.05324177071452141,
                    0.1004764586687088,
                    -0.08783073723316193,
                    0.16198322176933289,
                    0.15574507415294647
                ],
                [
                    0.006906415335834026,
                    -0.21636351943016052,
                    0.08279211074113846,
                    0.8828954100608826,
                    -0.038586653769016266,
                    -0.24321463704109192,
                    0.261364609003067,
                    0.07046365737915039,
                    -0.09079331159591675,
                    -0.3341558873653412,
                    0.8018282055854797,
                    0.2854248285293579,
                    -0.04580358788371086,
                    -0.2626536190509796,
                    0.4308514893054962,
                    -0.12421225011348724,
                    0.3521711230278015,
                    0.8610768914222717,
                    -0.3073679506778717,
                    0.09642452746629715,
                    -2.1911916732788086,
                    0.25651562213897705,
                    0.20324984192848206,
                    0.21345257759094238,
                    -0.5156154036521912,
                    -0.415048211812973,
                    0.5429696440696716,
                    0.4212954044342041,
                    0.07914657145738602,
                    -0.6657638549804688,
                    0.4684990346431732,
                    -0.647366464138031,
                    -1.9282000064849854,
                    0.8318423628807068,
                    0.3605368137359619,
                    0.4658384621143341
                ],
                [
                    0.053604282438755035,
                    0.7804538011550903,
                    -0.2112739384174347,
                    0.7804585099220276,
                    -0.15367084741592407,
                    0.34095102548599243,
                    -0.030847160145640373,
                    0.6206495761871338,
                    -1.6063424348831177,
                    -0.22313612699508667,
                    0.41576361656188965,
                    -0.1351425051689148,
                    0.501390814781189,
                    -0.0931243821978569,
                    -0.8226667642593384,
                    0.059959717094898224,
                    -0.8239961862564087,
                    0.0898386761546135,
                    -0.2716657519340515,
                    -0.17016184329986572,
                    0.4741048514842987,
                    -0.36798274517059326,
                    0.021910829469561577,
                    0.3529570400714874,
                    -0.3815239667892456,
                    0.22579503059387207,
                    0.5035508275032043,
                    -2.2650089263916016,
                    -0.24004793167114258,
                    -0.7163654565811157,
                    0.3112819194793701,
                    0.1954539567232132,
                    -0.8977349996566772,
                    0.09667077660560608,
                    -0.14329411089420319,
                    0.5029832124710083
                ]
            ]
        ],
        "biases": [
            [
                -0.6632596254348755,
                -0.05485795810818672,
                -1.2850854396820068,
                -0.45187947154045105,
                -0.9916238784790039,
                -0.4022263288497925,
                -0.066886767745018,
                -0.4817429184913635,
                -0.2828454375267029,
                -0.36404719948768616,
                -0.4752814471721649,
                -0.4800119996070862,
                0.015112553723156452,
                0.7959661483764648,
                -0.5093857645988464,
                -0.05647558718919754,
                -1.143713116645813,
                -0.6961165070533752,
                -0.4759798049926758,
                -0.7890436053276062,
                0.8094040155410767,
                -0.14354746043682098,
                -1.0481739044189453,
                -0.35020124912261963,
                -0.2916850745677948,
                0.5716152191162109,
                -0.2811439633369446,
                -0.68039470911026,
                -0.25986209511756897,
                -0.2480439692735672,
                -0.3309091329574585,
                -0.5554031133651733,
                -0.7707023024559021,
                -0.4774787724018097,
                -0.32173672318458557,
                -1.11770498752594
            ],
            [
                -0.17681092023849487,
                0.8209624886512756,
                0.19353722035884857,
                0.6068679690361023,
                0.1144016683101654,
                0.09455135464668274,
                0.28217771649360657,
                0.028702011331915855,
                -0.19798286259174347,
                0.045642782002687454,
                0.7230942249298096,
                -0.41636160016059875,
                0.1676504760980606,
                -0.21689832210540771,
                -0.3095889091491699,
                -0.19617435336112976,
                -0.1625690907239914,
                0.8204183578491211,
                -0.002600935287773609,
                -0.7049016952514648,
                -0.10258588939905167,
                -0.6862791776657104,
                -0.14729471504688263,
                -0.7671983242034912,
                0.12617795169353485,
                -0.34086379408836365,
                -0.7758974432945251,
                0.27784931659698486,
                -0.2872363030910492,
                -0.5227963328361511,
                2.120945453643799,
                0.03436258062720299,
                -0.7070658802986145,
                -0.0012853338848799467,
                0.03362736478447914,
                -0.22788457572460175
            ],
            [
                1.12126886844635,
                0.20746728777885437,
                0.745564877986908,
                -0.05856538936495781,
                0.8587318062782288,
                0.21325980126857758,
                0.6372293829917908,
                0.4342171251773834,
                0.6426646113395691
            ]
        ]
    }
}